digraph Tree {
node [shape=box] ;
0 [label="safety_int <= 0.5\ngini = 0.457\nsamples = 1728\nvalue = [1210, 384, 65, 69]"] ;
1 [label="gini = 0.0\nsamples = 576\nvalue = [576, 0, 0, 0]"] ;
0 -> 1 [labeldistance=2.5, labelangle=45, headlabel="True"] ;
2 [label="persons_int <= 0.5\ngini = 0.579\nsamples = 1152\nvalue = [634, 384, 65, 69]"] ;
0 -> 2 [labeldistance=2.5, labelangle=-45, headlabel="False"] ;
3 [label="gini = 0.0\nsamples = 384\nvalue = [384, 0, 0, 0]"] ;
2 -> 3 ;
4 [label="buying_int <= 1.5\ngini = 0.629\nsamples = 768\nvalue = [250, 384, 65, 69]"] ;
2 -> 4 ;
5 [label="maint_int <= 1.5\ngini = 0.498\nsamples = 384\nvalue = [204, 180, 0, 0]"] ;
4 -> 5 ;
6 [label="buying_int <= 0.5\ngini = 0.305\nsamples = 192\nvalue = [156, 36, 0, 0]"] ;
5 -> 6 ;
7 [label="gini = 0.0\nsamples = 96\nvalue = [96, 0, 0, 0]"] ;
6 -> 7 ;
8 [label="maint_int <= 0.5\ngini = 0.469\nsamples = 96\nvalue = [60, 36, 0, 0]"] ;
6 -> 8 ;
9 [label="gini = 0.0\nsamples = 48\nvalue = [48, 0, 0, 0]"] ;
8 -> 9 ;
10 [label="lug_boot_int <= 0.5\ngini = 0.375\nsamples = 48\nvalue = [12, 36, 0, 0]"] ;
8 -> 10 ;
11 [label="gini = 0.492\nsamples = 16\nvalue = [9, 7, 0, 0]"] ;
10 -> 11 ;
12 [label="safety_int <= 1.5\ngini = 0.17\nsamples = 32\nvalue = [3, 29, 0, 0]"] ;
10 -> 12 ;
13 [label="gini = 0.305\nsamples = 16\nvalue = [3, 13, 0, 0]"] ;
12 -> 13 ;
14 [label="gini = 0.0\nsamples = 16\nvalue = [0, 16, 0, 0]"] ;
12 -> 14 ;
15 [label="lug_boot_int <= 0.5\ngini = 0.375\nsamples = 192\nvalue = [48, 144, 0, 0]"] ;
5 -> 15 ;
16 [label="safety_int <= 1.5\ngini = 0.492\nsamples = 64\nvalue = [36, 28, 0, 0]"] ;
15 -> 16 ;
17 [label="gini = 0.0\nsamples = 32\nvalue = [32, 0, 0, 0]"] ;
16 -> 17 ;
18 [label="doors_int <= 0.5\ngini = 0.219\nsamples = 32\nvalue = [4, 28, 0, 0]"] ;
16 -> 18 ;
19 [label="gini = 0.5\nsamples = 8\nvalue = [4, 4, 0, 0]"] ;
18 -> 19 ;
20 [label="gini = 0.0\nsamples = 24\nvalue = [0, 24, 0, 0]"] ;
18 -> 20 ;
21 [label="lug_boot_int <= 1.5\ngini = 0.17\nsamples = 128\nvalue = [12, 116, 0, 0]"] ;
15 -> 21 ;
22 [label="safety_int <= 1.5\ngini = 0.305\nsamples = 64\nvalue = [12, 52, 0, 0]"] ;
21 -> 22 ;
23 [label="doors_int <= 1.5\ngini = 0.469\nsamples = 32\nvalue = [12, 20, 0, 0]"] ;
22 -> 23 ;
24 [label="gini = 0.375\nsamples = 16\nvalue = [12, 4, 0, 0]"] ;
23 -> 24 ;
25 [label="gini = 0.0\nsamples = 16\nvalue = [0, 16, 0, 0]"] ;
23 -> 25 ;
26 [label="gini = 0.0\nsamples = 32\nvalue = [0, 32, 0, 0]"] ;
22 -> 26 ;
27 [label="gini = 0.0\nsamples = 64\nvalue = [0, 64, 0, 0]"] ;
21 -> 27 ;
28 [label="maint_int <= 1.5\ngini = 0.642\nsamples = 384\nvalue = [46, 204, 65, 69]"] ;
4 -> 28 ;
29 [label="lug_boot_int <= 0.5\ngini = 0.417\nsamples = 192\nvalue = [38, 141, 13, 0]"] ;
28 -> 29 ;
30 [label="safety_int <= 1.5\ngini = 0.496\nsamples = 64\nvalue = [29, 35, 0, 0]"] ;
29 -> 30 ;
31 [label="buying_int <= 2.5\ngini = 0.342\nsamples = 32\nvalue = [25, 7, 0, 0]"] ;
30 -> 31 ;
32 [label="gini = 0.0\nsamples = 16\nvalue = [16, 0, 0, 0]"] ;
31 -> 32 ;
33 [label="gini = 0.492\nsamples = 16\nvalue = [9, 7, 0, 0]"] ;
31 -> 33 ;
34 [label="doors_int <= 0.5\ngini = 0.219\nsamples = 32\nvalue = [4, 28, 0, 0]"] ;
30 -> 34 ;
35 [label="gini = 0.5\nsamples = 8\nvalue = [4, 4, 0, 0]"] ;
34 -> 35 ;
36 [label="gini = 0.0\nsamples = 24\nvalue = [0, 24, 0, 0]"] ;
34 -> 36 ;
37 [label="maint_int <= 0.5\ngini = 0.299\nsamples = 128\nvalue = [9, 106, 13, 0]"] ;
29 -> 37 ;
38 [label="safety_int <= 1.5\ngini = 0.17\nsamples = 64\nvalue = [6, 58, 0, 0]"] ;
37 -> 38 ;
39 [label="doors_int <= 1.5\ngini = 0.305\nsamples = 32\nvalue = [6, 26, 0, 0]"] ;
38 -> 39 ;
40 [label="gini = 0.469\nsamples = 16\nvalue = [6, 10, 0, 0]"] ;
39 -> 40 ;
41 [label="gini = 0.0\nsamples = 16\nvalue = [0, 16, 0, 0]"] ;
39 -> 41 ;
42 [label="gini = 0.0\nsamples = 32\nvalue = [0, 32, 0, 0]"] ;
38 -> 42 ;
43 [label="buying_int <= 2.5\ngini = 0.394\nsamples = 64\nvalue = [3, 48, 13, 0]"] ;
37 -> 43 ;
44 [label="safety_int <= 1.5\ngini = 0.17\nsamples = 32\nvalue = [3, 29, 0, 0]"] ;
43 -> 44 ;
45 [label="gini = 0.305\nsamples = 16\nvalue = [3, 13, 0, 0]"] ;
44 -> 45 ;
46 [label="gini = 0.0\nsamples = 16\nvalue = [0, 16, 0, 0]"] ;
44 -> 46 ;
47 [label="safety_int <= 1.5\ngini = 0.482\nsamples = 32\nvalue = [0, 19, 13, 0]"] ;
43 -> 47 ;
48 [label="gini = 0.0\nsamples = 16\nvalue = [0, 16, 0, 0]"] ;
47 -> 48 ;
49 [label="gini = 0.305\nsamples = 16\nvalue = [0, 3, 13, 0]"] ;
47 -> 49 ;
50 [label="safety_int <= 1.5\ngini = 0.688\nsamples = 192\nvalue = [8, 63, 52, 69]"] ;
28 -> 50 ;
51 [label="lug_boot_int <= 0.5\ngini = 0.528\nsamples = 96\nvalue = [4, 53, 0, 39]"] ;
50 -> 51 ;
52 [label="doors_int <= 0.5\ngini = 0.219\nsamples = 32\nvalue = [4, 28, 0, 0]"] ;
51 -> 52 ;
53 [label="gini = 0.5\nsamples = 8\nvalue = [4, 4, 0, 0]"] ;
52 -> 53 ;
54 [label="gini = 0.0\nsamples = 24\nvalue = [0, 24, 0, 0]"] ;
52 -> 54 ;
55 [label="buying_int <= 2.5\ngini = 0.476\nsamples = 64\nvalue = [0, 25, 0, 39]"] ;
51 -> 55 ;
56 [label="maint_int <= 2.5\ngini = 0.482\nsamples = 32\nvalue = [0, 19, 0, 13]"] ;
55 -> 56 ;
57 [label="gini = 0.0\nsamples = 16\nvalue = [0, 16, 0, 0]"] ;
56 -> 57 ;
58 [label="gini = 0.305\nsamples = 16\nvalue = [0, 3, 0, 13]"] ;
56 -> 58 ;
59 [label="lug_boot_int <= 1.5\ngini = 0.305\nsamples = 32\nvalue = [0, 6, 0, 26]"] ;
55 -> 59 ;
60 [label="gini = 0.469\nsamples = 16\nvalue = [0, 6, 0, 10]"] ;
59 -> 60 ;
61 [label="gini = 0.0\nsamples = 16\nvalue = [0, 0, 0, 16]"] ;
59 -> 61 ;
62 [label="lug_boot_int <= 0.5\ngini = 0.596\nsamples = 96\nvalue = [4, 10, 52, 30]"] ;
50 -> 62 ;
63 [label="maint_int <= 2.5\ngini = 0.506\nsamples = 32\nvalue = [4, 7, 0, 21]"] ;
62 -> 63 ;
64 [label="gini = 0.602\nsamples = 16\nvalue = [2, 7, 0, 7]"] ;
63 -> 64 ;
65 [label="gini = 0.219\nsamples = 16\nvalue = [2, 0, 0, 14]"] ;
63 -> 65 ;
66 [label="lug_boot_int <= 1.5\ngini = 0.318\nsamples = 64\nvalue = [0, 3, 52, 9]"] ;
62 -> 66 ;
67 [label="doors_int <= 1.5\ngini = 0.521\nsamples = 32\nvalue = [0, 3, 20, 9]"] ;
66 -> 67 ;
68 [label="gini = 0.586\nsamples = 16\nvalue = [0, 3, 4, 9]"] ;
67 -> 68 ;
69 [label="gini = 0.0\nsamples = 16\nvalue = [0, 0, 16, 0]"] ;
67 -> 69 ;
70 [label="gini = 0.0\nsamples = 32\nvalue = [0, 0, 32, 0]"] ;
66 -> 70 ;
}